<?xml version="1.0"?>
<opencv_storage>
<stage6>
  <maxWeakCount>9</maxWeakCount>
  <stageThreshold>-6.0439509153366089e-01</stageThreshold>
  <weakClassifiers>
    <_>
      <internalNodes>
        0 -1 24816 -2010120075 -1143938669 -1786224321 -16473757
        -394059588 -54820293 -1920869652 -2002511600</internalNodes>
      <leafValues>
        -4.8022598028182983e-01 3.8116592168807983e-01</leafValues></_>
    <_>
      <internalNodes>
        0 -1 30347 -1938013483 895764991 381727647 -1261637162
        -1919530228 -1430220755 -1599584004 -322897176</internalNodes>
      <leafValues>
        -4.1717305779457092e-01 4.2951455712318420e-01</leafValues></_>
    <_>
      <internalNodes>
        0 -1 2593 1400890786 -707273787 -1862176336 1537825065
        1999831637 335544865 1896369097 1940126507</internalNodes>
      <leafValues>
        -5.4765790700912476e-01 3.5175082087516785e-01</leafValues></_>
    <_>
      <internalNodes>
        0 -1 30542 -1376346753 -1847826 -50381071 -93798680 -1006674375
        -1529397252 -956828188 -131013008</internalNodes>
      <leafValues>
        -3.6561712622642517e-01 5.2231252193450928e-01</leafValues></_>
    <_>
      <internalNodes>
        0 -1 25228 417078129 236468499 -1835707921 958192304 -1651725572
        -354285437 -1203692837 -334969772</internalNodes>
      <leafValues>
        -4.4732421636581421e-01 4.1223254799842834e-01</leafValues></_>
    <_>
      <internalNodes>
        0 -1 33839 390865909 -1897693162 -1659839535 -1253227809
        -1994493448 -392445623 -1895621700 -1930904196</internalNodes>
      <leafValues>
        -4.6207085251808167e-01 4.2951372265815735e-01</leafValues></_>
    <_>
      <internalNodes>
        0 -1 2898 -4456649 -1511030913 888055422 -584400907 -1361070222
        1356627839 -1124731551 -172492297</internalNodes>
      <leafValues>
        -4.0450885891914368e-01 4.9943310022354126e-01</leafValues></_>
    <_>
      <internalNodes>
        0 -1 27098 -720907389 -996615935 811159586 -19001086 -1852214506
        -393706840 -1029177312 -687691901</internalNodes>
      <leafValues>
        -5.2236849069595337e-01 3.6946132779121399e-01</leafValues></_>
    <_>
      <internalNodes>
        0 -1 32863 -1833413287 2134818789 -1342283777 1539251919
        2146860540 -1073744003 1608744952 -1460779723</internalNodes>
      <leafValues>
        -4.1691464185714722e-01 4.7897732257843018e-01</leafValues></_></weakClassifiers></stage6>
</opencv_storage>
