<?xml version="1.0"?>
<opencv_storage>
<stage8>
  <maxWeakCount>9</maxWeakCount>
  <stageThreshold>-6.7012584209442139e-01</stageThreshold>
  <weakClassifiers>
    <_>
      <internalNodes>
        0 -1 30972 -871961426 235405334 1158758417 1656779024 1091699116
        -1962655744 726696435 -865089337</internalNodes>
      <leafValues>
        -4.6733668446540833e-01 3.0897009372711182e-01</leafValues></_>
    <_>
      <internalNodes>
        0 -1 31401 1522430981 -753592177 -1325328993 -1082087630
        -1073174508 1016932481 -1073076006 -1341994412</internalNodes>
      <leafValues>
        -4.2976361513137817e-01 3.5332092642784119e-01</leafValues></_>
    <_>
      <internalNodes>
        0 -1 3408 1321632230 458739970 353372437 -1177470832 -1199499639
        -1392473215 -586773781 -914289791</internalNodes>
      <leafValues>
        -4.1529735922813416e-01 3.5610464215278625e-01</leafValues></_>
    <_>
      <internalNodes>
        0 -1 1630 -803970473 94306304 -2092932907 805396880 4797494
        1254776835 1073954973 -337809037</internalNodes>
      <leafValues>
        -3.9309704303741455e-01 4.0429940819740295e-01</leafValues></_>
    <_>
      <internalNodes>
        0 -1 30455 -1217340590 1869610874 -495437961 1953725139
        -294070808 -75788 -1107927810 -253647249</internalNodes>
      <leafValues>
        -3.6161535978317261e-01 4.3258404731750488e-01</leafValues></_>
    <_>
      <internalNodes>
        0 -1 17704 -1005748208 -65797373 -1321201419 -40632109
        -999716023 -809459362 -1467791901 1344655875</internalNodes>
      <leafValues>
        -4.6676909923553467e-01 3.4100461006164551e-01</leafValues></_>
    <_>
      <internalNodes>
        0 -1 14084 -291782665 -840257548 -66894 -1306364572 113109150
        -383844496 1202943136 -523045098</internalNodes>
      <leafValues>
        -3.7562069296836853e-01 4.6779349446296692e-01</leafValues></_>
    <_>
      <internalNodes>
        0 -1 31959 -1462265384 465797146 411075003 194117643 415250568
        194461896 411298302 -1461834753</internalNodes>
      <leafValues>
        -4.2543002963066101e-01 4.0920290350914001e-01</leafValues></_>
    <_>
      <internalNodes>
        0 -1 15505 -1043994488 -142503791 -2125971311 848674954
        -1845202318 1300252818 290181239 215726730</internalNodes>
      <leafValues>
        -4.8618313670158386e-01 3.8289156556129456e-01</leafValues></_></weakClassifiers></stage8>
</opencv_storage>
