<?xml version="1.0"?>
<opencv_storage>
<stage4>
  <maxWeakCount>8</maxWeakCount>
  <stageThreshold>-1.1820846796035767e+00</stageThreshold>
  <weakClassifiers>
    <_>
      <internalNodes>
        0 -1 23312 -1946119152 -8382928 1367660951 1998432708 -828601116
        -1196877437 143454205 -1958215616</internalNodes>
      <leafValues>
        -4.8441246151924133e-01 3.4648370742797852e-01</leafValues></_>
    <_>
      <internalNodes>
        0 -1 17401 -499145666 4196738 864145815 323567834 -1597851732
        17121304 -1026882114 1037034443</internalNodes>
      <leafValues>
        -5.2892255783081055e-01 3.2194426655769348e-01</leafValues></_>
    <_>
      <internalNodes>
        0 -1 32837 -636989096 -32356848 1079448731 -16723706 -2145094907
        -251002853 -926940518 -1439139702</internalNodes>
      <leafValues>
        -5.5425322055816650e-01 3.0009990930557251e-01</leafValues></_>
    <_>
      <internalNodes>
        0 -1 7923 -857217513 -5341511 -268583339 -237176915 888346450
        358612853 1845440820 -105253337</internalNodes>
      <leafValues>
        -3.7084707617759705e-01 4.6531692147254944e-01</leafValues></_>
    <_>
      <internalNodes>
        0 -1 113 -128204606 1966293072 319234001 -1821060843 143655615
        1594000014 -1822387046 549929175</internalNodes>
      <leafValues>
        -4.8776394128799438e-01 3.8874077796936035e-01</leafValues></_>
    <_>
      <internalNodes>
        0 -1 26554 -797063632 1460912448 4347924 1435714258 -1073622504
        -201228151 142973386 -522716533</internalNodes>
      <leafValues>
        -4.4335827231407166e-01 4.6620264649391174e-01</leafValues></_>
    <_>
      <internalNodes>
        0 -1 6453 -420546055 1032105904 -17567755 1408563253 1845356286
        -553648133 -1214777345 -302643552</internalNodes>
      <leafValues>
        -3.6302852630615234e-01 5.5394333600997925e-01</leafValues></_>
    <_>
      <internalNodes>
        0 -1 28830 -329905678 116850799 538468746 303141319 -1962934257
        1342359881 136299107 -435306234</internalNodes>
      <leafValues>
        -5.6427949666976929e-01 3.3550140261650085e-01</leafValues></_></weakClassifiers></stage4>
</opencv_storage>
