<?xml version="1.0"?>
<opencv_storage>
<stage1>
  <maxWeakCount>7</maxWeakCount>
  <stageThreshold>-7.7226620912551880e-01</stageThreshold>
  <weakClassifiers>
    <_>
      <internalNodes>
        0 -1 1327 1438639103 1912340319 1205827327 1912078287 2113502975
        1042183774 1943401471 1946124127</internalNodes>
      <leafValues>
        -4.6919432282447815e-01 5.2380955219268799e-01</leafValues></_>
    <_>
      <internalNodes>
        0 -1 6155 -570371584 -644867092 1476411615 -183447151 -922552183
        -871856480 -1467823381 -188442464</internalNodes>
      <leafValues>
        -5.2598142623901367e-01 4.0573790669441223e-01</leafValues></_>
    <_>
      <internalNodes>
        0 -1 21432 -2012707748 -4679240 1359024603 -7536239 -2096567922
        -1151172454 -909477453 -1397487552</internalNodes>
      <leafValues>
        -5.0848960876464844e-01 3.9695802330970764e-01</leafValues></_>
    <_>
      <internalNodes>
        0 -1 24507 1099911251 22022534 285298714 1431422208 1141604367
        542048835 1493330106 738709707</internalNodes>
      <leafValues>
        -4.5991826057434082e-01 4.8146918416023254e-01</leafValues></_>
    <_>
      <internalNodes>
        0 -1 237 268698496 429459661 -1189801869 810783045 836868348
        -1607186400 724142335 -980297061</internalNodes>
      <leafValues>
        -5.5027413368225098e-01 3.7587025761604309e-01</leafValues></_>
    <_>
      <internalNodes>
        0 -1 3660 -867931984 -436141888 1359042001 -638118634 805350065
        -1415479112 1158265049 -852374171</internalNodes>
      <leafValues>
        -4.9826553463935852e-01 4.3918037414550781e-01</leafValues></_>
    <_>
      <internalNodes>
        0 -1 76 -1954350088 -2054668224 1346523415 1025507603 17420906
        1829324964 941753112 1662210283</internalNodes>
      <leafValues>
        -5.2345430850982666e-01 4.3363308906555176e-01</leafValues></_></weakClassifiers></stage1>
</opencv_storage>
