<?xml version="1.0"?>
<opencv_storage>
<stage25>
  <maxWeakCount>12</maxWeakCount>
  <stageThreshold>-7.7819776535034180e-01</stageThreshold>
  <weakClassifiers>
    <_>
      <internalNodes>
        0 -1 24562 1128112644 4826121 -524287940 1728676071 377490099
        33591428 1954568328 757857289</internalNodes>
      <leafValues>
        -5.2068966627120972e-01 2.1267606317996979e-01</leafValues></_>
    <_>
      <internalNodes>
        0 -1 34571 923541741 530280799 -1056956965 811311775 -264100709
        -259391352 -1557823727 -1351865284</internalNodes>
      <leafValues>
        -3.5778573155403137e-01 2.9078096151351929e-01</leafValues></_>
    <_>
      <internalNodes>
        0 -1 15432 -416235547 -1078464906 -402983083 -676989338
        -1351092801 -180653 -50964998 -906418764</internalNodes>
      <leafValues>
        -2.3832474648952484e-01 4.5005047321319580e-01</leafValues></_>
    <_>
      <internalNodes>
        0 -1 11927 -306337797 -1414352962 1073733401 137137440
        -336494866 485842809 1593474057 184200891</internalNodes>
      <leafValues>
        -2.9211336374282837e-01 4.1618493199348450e-01</leafValues></_>
    <_>
      <internalNodes>
        0 -1 13708 201986482 269793376 -2122229340 1296209045 555854241
        2040070147 1242139764 14010452</internalNodes>
      <leafValues>
        -5.9292459487915039e-01 1.6650649905204773e-01</leafValues></_>
    <_>
      <internalNodes>
        0 -1 33205 1699193753 6480402 -1340022764 110347440 1103878912
        16932872 -821816886 1161874159</internalNodes>
      <leafValues>
        -4.2762961983680725e-01 3.0112648010253906e-01</leafValues></_>
    <_>
      <internalNodes>
        0 -1 6125 1119661118 663957717 -2080161296 -911798256 671294240
        1587626113 185293314 1540458642</internalNodes>
      <leafValues>
        -4.6943670511245728e-01 2.5663661956787109e-01</leafValues></_>
    <_>
      <internalNodes>
        0 -1 6634 -1253590370 564445408 -1879042928 -342208208
        2018697679 -914128661 58900624 4292996</internalNodes>
      <leafValues>
        -4.3422976136207581e-01 3.1342816352844238e-01</leafValues></_>
    <_>
      <internalNodes>
        0 -1 17295 -2124740229 1161986963 -1841150499 -900070758
        51081996 -1304264318 1854259329 -457179068</internalNodes>
      <leafValues>
        -4.6436193585395813e-01 3.1019690632820129e-01</leafValues></_>
    <_>
      <internalNodes>
        0 -1 32284 -353641893 -771936603 -1073811460 -1854492894
        -1384157224 1308053501 -1975917218 1896828262</internalNodes>
      <leafValues>
        -2.9298591613769531e-01 4.7305500507354736e-01</leafValues></_>
    <_>
      <internalNodes>
        0 -1 5414 -1556094420 1767506178 -2097081957 919740644
        1867102566 562569361 1074724922 1896865995</internalNodes>
      <leafValues>
        -4.9785253405570984e-01 2.8865587711334229e-01</leafValues></_>
    <_>
      <internalNodes>
        0 -1 13507 -653216783 642321162 1233042 335681810 -2059263992
        -1722113951 252017313 1000415254</internalNodes>
      <leafValues>
        -5.4336810111999512e-01 2.5078442692756653e-01</leafValues></_></weakClassifiers></stage25>
</opencv_storage>
