<?xml version="1.0"?>
<opencv_storage>
<stage15>
  <maxWeakCount>10</maxWeakCount>
  <stageThreshold>-8.3371984958648682e-01</stageThreshold>
  <weakClassifiers>
    <_>
      <internalNodes>
        0 -1 27795 -1008556065 14292118 1091703644 1644741818
        -1466958753 1096187968 -1245017368 -239497317</internalNodes>
      <leafValues>
        -4.1059601306915283e-01 3.4003657102584839e-01</leafValues></_>
    <_>
      <internalNodes>
        0 -1 17368 209142577 663671829 -998012685 -1066348013 1486569589
        -1434288027 -1394770847 -361735452</internalNodes>
      <leafValues>
        -4.5051643252372742e-01 3.0668565630912781e-01</leafValues></_>
    <_>
      <internalNodes>
        0 -1 15432 -1502417347 -89985043 -470095891 -809765280
        -135004233 -268681647 1593630199 -311302736</internalNodes>
      <leafValues>
        -3.1775605678558350e-01 4.4196158647537231e-01</leafValues></_>
    <_>
      <internalNodes>
        0 -1 3834 -286357577 -290914606 -151044365 -504561808 -805318921
        -738329107 2121170643 -1003884781</internalNodes>
      <leafValues>
        -3.3033233880996704e-01 4.3040439486503601e-01</leafValues></_>
    <_>
      <internalNodes>
        0 -1 33580 -1395260331 -1386692291 -643804426 -1709520514
        1486758676 -99955583 -1937136452 -533704640</internalNodes>
      <leafValues>
        -5.0951892137527466e-01 2.9024732112884521e-01</leafValues></_>
    <_>
      <internalNodes>
        0 -1 31528 -566231113 -805634193 -16811342 -1803753546
        -1345355978 -271122436 1426046329 -235477340</internalNodes>
      <leafValues>
        -3.5678946971893311e-01 4.3282529711723328e-01</leafValues></_>
    <_>
      <internalNodes>
        0 -1 31837 -1971447242 -2009014062 -1609760496 -1877024741
        -477804399 -909438975 1778565215 -1434260151</internalNodes>
      <leafValues>
        -4.4695034623146057e-01 3.6717316508293152e-01</leafValues></_>
    <_>
      <internalNodes>
        0 -1 3076 239316659 510934450 535670653 -1175224469 -682230017
        1047773025 -143774263 -641217049</internalNodes>
      <leafValues>
        -3.5789394378662109e-01 4.6393328905105591e-01</leafValues></_>
    <_>
      <internalNodes>
        0 -1 28622 709319425 24203282 -1593761778 313317698 1955186908
        -1686076829 1342200972 -1469847642</internalNodes>
      <leafValues>
        -4.4916406273841858e-01 4.0397140383720398e-01</leafValues></_>
    <_>
      <internalNodes>
        0 -1 30233 -499128401 86376191 -470813351 1308360446 528348630
        -42663970 2080267543 -397037709</internalNodes>
      <leafValues>
        -3.6490887403488159e-01 4.7864857316017151e-01</leafValues></_></weakClassifiers></stage15>
</opencv_storage>
