<?xml version="1.0"?>
<opencv_storage>
<stage13>
  <maxWeakCount>9</maxWeakCount>
  <stageThreshold>-6.6431403160095215e-01</stageThreshold>
  <weakClassifiers>
    <_>
      <internalNodes>
        0 -1 34591 448573437 -1141098562 -1073741865 -1107910932
        -1076051969 -1107296265 -1795195906 -1150542344</internalNodes>
      <leafValues>
        -3.3214604854583740e-01 4.2531356215476990e-01</leafValues></_>
    <_>
      <internalNodes>
        0 -1 367 1405728637 -1853765630 1350631818 -410351481 -509110121
        1770656457 -713187471 862930918</internalNodes>
      <leafValues>
        -4.6776962280273438e-01 3.0736979842185974e-01</leafValues></_>
    <_>
      <internalNodes>
        0 -1 3646 -1589343440 -2063216064 96579672 -50242832 -1996344901
        -1432247541 -450766455 -44054256</internalNodes>
      <leafValues>
        -3.9702355861663818e-01 3.4760716557502747e-01</leafValues></_>
    <_>
      <internalNodes>
        0 -1 21132 1800380714 53502344 285315321 -738111330 1663676580
        270632325 -1585432567 1191300098</internalNodes>
      <leafValues>
        -4.8267164826393127e-01 3.4443515539169312e-01</leafValues></_>
    <_>
      <internalNodes>
        0 -1 22119 -245373211 445887833 -670760641 1844677324 -362096249
        -1288699774 -2109529568 -212382048</internalNodes>
      <leafValues>
        -3.8229468464851379e-01 3.8868561387062073e-01</leafValues></_>
    <_>
      <internalNodes>
        0 -1 24865 -1039210972 323258745 -745954566 1744070206
        1745422215 -1601090654 -1578452646 540533419</internalNodes>
      <leafValues>
        -4.2226353287696838e-01 3.6191281676292419e-01</leafValues></_>
    <_>
      <internalNodes>
        0 -1 27905 -914401609 1010577402 905883438 -1094943386
        1064771030 1065189169 2144181661 -67700869</internalNodes>
      <leafValues>
        -3.3200255036354065e-01 4.4675084948539734e-01</leafValues></_>
    <_>
      <internalNodes>
        0 -1 26317 -2076817356 1574901976 1094717942 291373387 67250340
        786991249 671689242 -1854667430</internalNodes>
      <leafValues>
        -4.4867834448814392e-01 3.4535217285156250e-01</leafValues></_>
    <_>
      <internalNodes>
        0 -1 3060 122988177 721855875 1359128064 291246737 336582057
        -1795157886 693741820 -1444578175</internalNodes>
      <leafValues>
        -4.6087014675140381e-01 3.5590681433677673e-01</leafValues></_></weakClassifiers></stage13>
</opencv_storage>
