<?xml version="1.0"?>
<opencv_storage>
<stage7>
  <maxWeakCount>8</maxWeakCount>
  <stageThreshold>-1.2352243661880493e+00</stageThreshold>
  <weakClassifiers>
    <_>
      <internalNodes>
        0 -1 2267 1935667915 328435990 327204888 -408938470 1343074495
        1728807331 -795901445 1408758127</internalNodes>
      <leafValues>
        -5.0790065526962280e-01 4.0394973754882812e-01</leafValues></_>
    <_>
      <internalNodes>
        0 -1 13013 -900471542 8705101 285787348 -1031405057 1636442886
        302022691 1386713606 1896873907</internalNodes>
      <leafValues>
        -6.5322178602218628e-01 2.9827395081520081e-01</leafValues></_>
    <_>
      <internalNodes>
        0 -1 26226 -102763993 139428743 25268498 34864286 1074160193
        1074240361 1644307526 1968958383</internalNodes>
      <leafValues>
        -5.1776230335235596e-01 3.4759902954101562e-01</leafValues></_>
    <_>
      <internalNodes>
        0 -1 30876 -1048648785 107037147 -922646506 716698675
        -1806761727 -1420672877 2030701460 -467676261</internalNodes>
      <leafValues>
        -4.2200946807861328e-01 4.2840978503227234e-01</leafValues></_>
    <_>
      <internalNodes>
        0 -1 33033 -405539977 1380909527 336631002 1678190618 2081385478
        2022417010 -805278400 -1066144025</internalNodes>
      <leafValues>
        -4.3608462810516357e-01 4.3344867229461670e-01</leafValues></_>
    <_>
      <internalNodes>
        0 -1 12925 -145235921 235122824 -1073486960 -531791357 291678576
        1394706592 -2083859162 1401615867</internalNodes>
      <leafValues>
        -5.5855786800384521e-01 3.5238802433013916e-01</leafValues></_>
    <_>
      <internalNodes>
        0 -1 4014 -1049893661 -1992146752 302154064 -970817536 470389198
        447447042 -475942782 -162287129</internalNodes>
      <leafValues>
        -4.3404588103294373e-01 4.5494994521141052e-01</leafValues></_>
    <_>
      <internalNodes>
        0 -1 27551 -1410860953 1660354415 -285282501 -1568965011
        -574638244 -839421957 938964979 -455087026</internalNodes>
      <leafValues>
        -4.5642626285552979e-01 4.7750121355056763e-01</leafValues></_></weakClassifiers></stage7>
</opencv_storage>
