<?xml version="1.0"?>
<opencv_storage>
<stage17>
  <maxWeakCount>11</maxWeakCount>
  <stageThreshold>-6.7807352542877197e-01</stageThreshold>
  <weakClassifiers>
    <_>
      <internalNodes>
        0 -1 33009 -134242305 1375483887 -16844035 920485626 -283128316
        -1879056425 -319029770 -530063494</internalNodes>
      <leafValues>
        -2.8148773312568665e-01 4.0758875012397766e-01</leafValues></_>
    <_>
      <internalNodes>
        0 -1 23344 -1157723391 -671256585 2147413937 2078535373
        -201335188 -361302036 -1451229509 -121376890</internalNodes>
      <leafValues>
        -2.4967566132545471e-01 4.6656128764152527e-01</leafValues></_>
    <_>
      <internalNodes>
        0 -1 33224 -805976129 192208575 -1074921566 -1884504166
        2147112332 -1912815625 134188214 -527443969</internalNodes>
      <leafValues>
        -2.8917184472084045e-01 4.3078371882438660e-01</leafValues></_>
    <_>
      <internalNodes>
        0 -1 2932 -184177756 1571668288 1527791745 730862032 43004834
        1458508322 1938913709 1998104856</internalNodes>
      <leafValues>
        -5.0412148237228394e-01 2.4372205138206482e-01</leafValues></_>
    <_>
      <internalNodes>
        0 -1 1149 -121803415 -964395122 -377032 -457802399 1845409630
        -859930781 2105522148 -790112457</internalNodes>
      <leafValues>
        -3.3009898662567139e-01 4.0474131703376770e-01</leafValues></_>
    <_>
      <internalNodes>
        0 -1 2650 1062734081 -1763818990 -1769938835 -305675350
        -1207901349 -1451114494 1625918092 -1344529964</internalNodes>
      <leafValues>
        -4.8304241895675659e-01 2.8551989793777466e-01</leafValues></_>
    <_>
      <internalNodes>
        0 -1 26048 345466403 584237847 -146210040 415924312 436985353
        1200818313 571454255 -2013994742</internalNodes>
      <leafValues>
        -4.8528057336807251e-01 2.9766130447387695e-01</leafValues></_>
    <_>
      <internalNodes>
        0 -1 11078 -591315030 -1711935619 -2343361 -1216528653 926906140
        -45858881 -67141672 -1612055077</internalNodes>
      <leafValues>
        -2.8826847672462463e-01 5.0744056701660156e-01</leafValues></_>
    <_>
      <internalNodes>
        0 -1 33462 -1659607969 -1190915886 85089557 -1414789988
        -1874328585 1518389593 -1969050882 255329908</internalNodes>
      <leafValues>
        -4.8101127147674561e-01 3.1585943698883057e-01</leafValues></_>
    <_>
      <internalNodes>
        0 -1 2711 -1558376414 -416710527 1220628492 874123635 184633719
        119704067 37446780 851690127</internalNodes>
      <leafValues>
        -6.4984434843063354e-01 2.7110636234283447e-01</leafValues></_>
    <_>
      <internalNodes>
        0 -1 27840 1844735573 -252055810 -1342276625 1597832805
        -327879290 -555352403 -1224941620 -1460748694</internalNodes>
      <leafValues>
        -3.5603702068328857e-01 4.8369723558425903e-01</leafValues></_></weakClassifiers></stage17>
</opencv_storage>
