<?xml version="1.0"?>
<opencv_storage>
<stage14>
  <maxWeakCount>10</maxWeakCount>
  <stageThreshold>-7.4090629816055298e-01</stageThreshold>
  <weakClassifiers>
    <_>
      <internalNodes>
        0 -1 21427 676337652 458228036 -258931555 520650780 2039688957
        -133463531 1710748 513810512</internalNodes>
      <leafValues>
        -5.6173914670944214e-01 2.2666667401790619e-01</leafValues></_>
    <_>
      <internalNodes>
        0 -1 29888 -1563234361 8832471 -443363143 1926938783 -795915495
        791605249 -536100796 -225452153</internalNodes>
      <leafValues>
        -3.9978301525115967e-01 3.4024387598037720e-01</leafValues></_>
    <_>
      <internalNodes>
        0 -1 729 -1939680352 -2139045374 -2147200013 -950985792
        -389838415 -1946033658 -1953479087 -1001046700</internalNodes>
      <leafValues>
        -5.4021191596984863e-01 2.5563210248947144e-01</leafValues></_>
    <_>
      <internalNodes>
        0 -1 3001 -693094404 1073250110 2112700401 1030717356 1606098847
        -37783555 -1948356 -1103618128</internalNodes>
      <leafValues>
        -3.4554749727249146e-01 3.9678895473480225e-01</leafValues></_>
    <_>
      <internalNodes>
        0 -1 30163 -922983372 1430805289 390600825 563617121 -492366729
        302686217 -645420385 -536850634</internalNodes>
      <leafValues>
        -5.0817453861236572e-01 2.6876258850097656e-01</leafValues></_>
    <_>
      <internalNodes>
        0 -1 5043 1440629194 1767938696 1359151303 -770936113 607060164
        1671561345 -802583898 801704455</internalNodes>
      <leafValues>
        -5.0123387575149536e-01 2.9585522413253784e-01</leafValues></_>
    <_>
      <internalNodes>
        0 -1 19312 -941021942 -574953640 268774350 -2108832569
        -1727938345 1812439063 -1093971709 -677780904</internalNodes>
      <leafValues>
        -4.1648840904235840e-01 3.5882985591888428e-01</leafValues></_>
    <_>
      <internalNodes>
        0 -1 13625 998417248 873742408 -670878644 -1907470016 1359593617
        1518870537 285809305 -1941084016</internalNodes>
      <leafValues>
        -5.0201892852783203e-01 3.2703965902328491e-01</leafValues></_>
    <_>
      <internalNodes>
        0 -1 28949 49568572 407538816 1376276735 -1643883515 -1475858948
        -619165026 -1946414439 -1366551323</internalNodes>
      <leafValues>
        -5.4015052318572998e-01 2.7954268455505371e-01</leafValues></_>
    <_>
      <internalNodes>
        0 -1 21241 -419518685 -2044039189 737013047 -773128599
        1870605685 1996128119 -1118472660 -905986049</internalNodes>
      <leafValues>
        -3.2054811716079712e-01 5.1045876741409302e-01</leafValues></_></weakClassifiers></stage14>
</opencv_storage>
