<?xml version="1.0"?>
<opencv_storage>
<stage12>
  <maxWeakCount>10</maxWeakCount>
  <stageThreshold>-7.8672868013381958e-01</stageThreshold>
  <weakClassifiers>
    <_>
      <internalNodes>
        0 -1 5306 1708119867 1385533444 66123 1447086082 21455669
        4729388 1728281394 2005609115</internalNodes>
      <leafValues>
        -4.3620899319648743e-01 3.0501273274421692e-01</leafValues></_>
    <_>
      <internalNodes>
        0 -1 30639 -161757513 -1536980856 -590229480 815411226
        1099169860 1294027399 270368944 1164399107</internalNodes>
      <leafValues>
        -4.4386109709739685e-01 2.7948540449142456e-01</leafValues></_>
    <_>
      <internalNodes>
        0 -1 27821 -1198518788 505282568 696269265 122818700 1221487329
        943796866 -1476252020 700070104</internalNodes>
      <leafValues>
        -4.7965183854103088e-01 2.6383528113365173e-01</leafValues></_>
    <_>
      <internalNodes>
        0 -1 24414 1078722308 1628624471 -989757095 2009188364
        1224857800 -1728020334 1552891180 834120390</internalNodes>
      <leafValues>
        -4.1911253333091736e-01 3.4467446804046631e-01</leafValues></_>
    <_>
      <internalNodes>
        0 -1 345 1163053038 1472534555 274876083 -661784573 -1725330553
        -556624608 1183424909 -606891950</internalNodes>
      <leafValues>
        -3.4622272849082947e-01 4.2517447471618652e-01</leafValues></_>
    <_>
      <internalNodes>
        0 -1 2295 -527781068 270538885 -1073632921 25608966 1670317104
        -1601091438 96564120 2145194330</internalNodes>
      <leafValues>
        -5.1431298255920410e-01 2.8147456049919128e-01</leafValues></_>
    <_>
      <internalNodes>
        0 -1 15558 -116800598 -1203519023 562413906 -1205034960
        -2029968664 2055284899 -905140183 333934683</internalNodes>
      <leafValues>
        -4.5608887076377869e-01 3.3194664120674133e-01</leafValues></_>
    <_>
      <internalNodes>
        0 -1 22668 844996691 310514257 1770704973 1775667970 839553137
        -1156341247 184793998 541833752</internalNodes>
      <leafValues>
        -4.5793703198432922e-01 3.5162746906280518e-01</leafValues></_>
    <_>
      <internalNodes>
        0 -1 11913 -90179395 -500875239 -1878814374 -728342518
        -644944993 1638434985 -742380800 545448855</internalNodes>
      <leafValues>
        -4.7745853662490845e-01 3.1572881340980530e-01</leafValues></_>
    <_>
      <internalNodes>
        0 -1 2798 1310926532 -1777786540 51398814 -703260415 816553635
        570654913 -1224660888 1890445843</internalNodes>
      <leafValues>
        -5.7031774520874023e-01 2.8304532170295715e-01</leafValues></_></weakClassifiers></stage12>
</opencv_storage>
