<?xml version="1.0"?>
<opencv_storage>
<stage10>
  <maxWeakCount>9</maxWeakCount>
  <stageThreshold>-7.5320863723754883e-01</stageThreshold>
  <weakClassifiers>
    <_>
      <internalNodes>
        0 -1 8265 2098212989 381710743 -1996484549 965763165 763896317
        -1304718968 -1686028788 -1086579936</internalNodes>
      <leafValues>
        -4.3043479323387146e-01 3.6666667461395264e-01</leafValues></_>
    <_>
      <internalNodes>
        0 -1 29800 -990918833 38180116 -788418802 -354827265 1705627795
        -515779294 -1102771351 -1594896765</internalNodes>
      <leafValues>
        -4.1616341471672058e-01 4.1351479291915894e-01</leafValues></_>
    <_>
      <internalNodes>
        0 -1 26320 -1903944683 -15349345 -1877815097 -32464660
        -626464360 -242712437 -394208264 -1408985072</internalNodes>
      <leafValues>
        -4.7019150853157043e-01 3.6616912484169006e-01</leafValues></_>
    <_>
      <internalNodes>
        0 -1 1059 -87049 -1972437014 -90638 -861339872 2147090359
        -872456577 -554178363 -513933453</internalNodes>
      <leafValues>
        -3.7492930889129639e-01 4.7242161631584167e-01</leafValues></_>
    <_>
      <internalNodes>
        0 -1 4961 1129692967 805957275 -1930206887 -2021490277 107814977
        -669958013 -1033166515 1946640983</internalNodes>
      <leafValues>
        -4.7890400886535645e-01 3.8146302103996277e-01</leafValues></_>
    <_>
      <internalNodes>
        0 -1 29165 -321181667 -661382948 -1139533435 436897906
        -1599377475 -258962345 -1467609586 -134188114</internalNodes>
      <leafValues>
        -4.6231827139854431e-01 3.9675158262252808e-01</leafValues></_>
    <_>
      <internalNodes>
        0 -1 32705 12851029 412542238 -1064992549 631007394 -2138997143
        386076850 -1984357969 -1902108796</internalNodes>
      <leafValues>
        -5.1644760370254517e-01 3.8281366229057312e-01</leafValues></_>
    <_>
      <internalNodes>
        0 -1 17420 1744170542 520410883 323330983 -610839585 1984651341
        806356992 -1305878147 -941102167</internalNodes>
      <leafValues>
        -5.2463418245315552e-01 3.5034891963005066e-01</leafValues></_>
    <_>
      <internalNodes>
        0 -1 17517 -1511246793 6264783 1367423399 -2012544166 1518410101
        -900464509 -1592975024 -62549392</internalNodes>
      <leafValues>
        -4.4670057296752930e-01 4.4484141469001770e-01</leafValues></_></weakClassifiers></stage10>
</opencv_storage>
