<?xml version="1.0"?>
<opencv_storage>
<stage20>
  <maxWeakCount>12</maxWeakCount>
  <stageThreshold>-7.1230518817901611e-01</stageThreshold>
  <weakClassifiers>
    <_>
      <internalNodes>
        0 -1 17671 -805320769 -1744951558 -1342266869 1002429179
        -268435779 96468471 -1158332676 201284858</internalNodes>
      <leafValues>
        -2.6793074607849121e-01 4.1296061873435974e-01</leafValues></_>
    <_>
      <internalNodes>
        0 -1 31554 -1201676902 1345366144 1346650748 -2055155536
        -394162064 1494403210 -790560762 1916265987</internalNodes>
      <leafValues>
        -3.7147456407546997e-01 3.0398291349411011e-01</leafValues></_>
    <_>
      <internalNodes>
        0 -1 25409 -1655570977 -1653145484 -804949993 -306052710
        -2113199666 -1298979807 -972668528 -726866928</internalNodes>
      <leafValues>
        -3.4431692957878113e-01 3.5973504185676575e-01</leafValues></_>
    <_>
      <internalNodes>
        0 -1 30019 1184623613 539436367 -2004785918 42616643 -1692252061
        1694502939 1707318099 -416043384</internalNodes>
      <leafValues>
        -4.6435227990150452e-01 2.7711743116378784e-01</leafValues></_>
    <_>
      <internalNodes>
        0 -1 8475 -719740346 -1878949665 1627521514 1037353056
        -1575835005 822153354 -100134162 1401083946</internalNodes>
      <leafValues>
        -4.2497992515563965e-01 3.2457864284515381e-01</leafValues></_>
    <_>
      <internalNodes>
        0 -1 7199 -999628270 319984386 -1870331818 1090650244 1360239490
        172524073 -905556656 1685296427</internalNodes>
      <leafValues>
        -4.3433079123497009e-01 3.3124566078186035e-01</leafValues></_>
    <_>
      <internalNodes>
        0 -1 21156 1617668226 -1596694395 50370964 -1853681407
        1485423749 -251092960 -879935103 -446766931</internalNodes>
      <leafValues>
        -4.1630646586418152e-01 3.4976676106452942e-01</leafValues></_>
    <_>
      <internalNodes>
        0 -1 33463 -2039463203 866489665 855988757 1061987525
        -1744076599 -2004249584 -1492605985 -1959261076</internalNodes>
      <leafValues>
        -3.7266835570335388e-01 3.9928624033927917e-01</leafValues></_>
    <_>
      <internalNodes>
        0 -1 11355 -1580844271 -1860423151 -1073590248 -711393024
        1133199501 -889028606 9265368 208145264</internalNodes>
      <leafValues>
        -5.5671536922454834e-01 2.9424679279327393e-01</leafValues></_>
    <_>
      <internalNodes>
        0 -1 26265 -94902877 115003539 -1073657792 289464582 1771221828
        -2012657656 -2119562451 -462692273</internalNodes>
      <leafValues>
        -3.9049315452575684e-01 3.8836395740509033e-01</leafValues></_>
    <_>
      <internalNodes>
        0 -1 24467 1610755598 288014614 17305676 290940931 1804407427
        1174636296 286036072 572580102</internalNodes>
      <leafValues>
        -5.8935803174972534e-01 2.5929158926010132e-01</leafValues></_>
    <_>
      <internalNodes>
        0 -1 23308 1060930960 -1744138167 -843030278 1476657564
        -1878052931 1489068136 1771678060 -1146617812</internalNodes>
      <leafValues>
        -4.1658282279968262e-01 3.6919227242469788e-01</leafValues></_></weakClassifiers></stage20>
</opencv_storage>
