<?xml version="1.0"?>
<opencv_storage>
<stage5>
  <maxWeakCount>8</maxWeakCount>
  <stageThreshold>-1.0338870286941528e+00</stageThreshold>
  <weakClassifiers>
    <_>
      <internalNodes>
        0 -1 10897 743057021 1461522710 752554463 1024484181 1512118637
        -1166006115 1944197289 -1144510912</internalNodes>
      <leafValues>
        -4.7749724984169006e-01 3.9944905042648315e-01</leafValues></_>
    <_>
      <internalNodes>
        0 -1 9350 -934380941 -301842013 -2145304491 -1035677376
        -373364236 -821852059 1588150912 -800655020</internalNodes>
      <leafValues>
        -4.5018473267555237e-01 4.2904412746429443e-01</leafValues></_>
    <_>
      <internalNodes>
        0 -1 2311 1365116743 -637418919 470335635 2030686755 1631662609
        1795850758 1616083695 2146432495</internalNodes>
      <leafValues>
        -4.5645979046821594e-01 4.2486113309860229e-01</leafValues></_>
    <_>
      <internalNodes>
        0 -1 23725 -2094792323 892424522 -783121953 999653380
        -1391195975 -1433173821 1241813392 -1142421424</internalNodes>
      <leafValues>
        -4.6184080839157104e-01 4.4627240300178528e-01</leafValues></_>
    <_>
      <internalNodes>
        0 -1 32166 -11395497 -110219329 -67239937 -1208942857 -17015064
        -262149 -151495106 -293147300</internalNodes>
      <leafValues>
        -3.7698602676391602e-01 5.5124670267105103e-01</leafValues></_>
    <_>
      <internalNodes>
        0 -1 26380 -65838884 8475168 -1073702000 -2143039453 1241515432
        706873488 433262991 163303851</internalNodes>
      <leafValues>
        -5.7960736751556396e-01 3.6495944857597351e-01</leafValues></_>
    <_>
      <internalNodes>
        0 -1 30077 211030961 445780000 1362989335 822874133 168300700
        -1451065204 1610695064 -1971187556</internalNodes>
      <leafValues>
        -4.7199413180351257e-01 4.4943115115165710e-01</leafValues></_>
    <_>
      <internalNodes>
        0 -1 9084 -2071804937 -279920256 824302065 -26961263 596338399
        -402554622 -522573693 -600377311</internalNodes>
      <leafValues>
        -4.6005886793136597e-01 4.8990455269813538e-01</leafValues></_></weakClassifiers></stage5>
</opencv_storage>
