<?xml version="1.0"?>
<opencv_storage>
<stage3>
  <maxWeakCount>7</maxWeakCount>
  <stageThreshold>-7.2140341997146606e-01</stageThreshold>
  <weakClassifiers>
    <_>
      <internalNodes>
        0 -1 17293 -394265625 2454072 1862155257 1004010997 1189984191
        72744957 -1241587201 -541065249</internalNodes>
      <leafValues>
        -3.7851238250732422e-01 5.7974684238433838e-01</leafValues></_>
    <_>
      <internalNodes>
        0 -1 2417 -10224889 -469778513 2147455735 -1819447494 343766837
        926744445 393704843 -201329029</internalNodes>
      <leafValues>
        -3.4137383103370667e-01 5.4131454229354858e-01</leafValues></_>
    <_>
      <internalNodes>
        0 -1 30335 -394928108 1918391300 -2078109370 1891791880
        -670167030 679530632 -1062872542 -1608322534</internalNodes>
      <leafValues>
        -5.4958331584930420e-01 3.5743191838264465e-01</leafValues></_>
    <_>
      <internalNodes>
        0 -1 127 -1547451444 -754744574 4593682 -1319954811 -2079794869
        319390104 564134546 1408209595</internalNodes>
      <leafValues>
        -4.9206182360649109e-01 4.0183356404304504e-01</leafValues></_>
    <_>
      <internalNodes>
        0 -1 327 1082163924 -348077069 268550289 -1660874349 -2012991316
        671682689 -1476228443 -573352187</internalNodes>
      <leafValues>
        -5.3178262710571289e-01 3.6237648129463196e-01</leafValues></_>
    <_>
      <internalNodes>
        0 -1 16034 196910397 900631988 -1073844481 -201366764 1014923156
        -411113474 -1359659023 -364407692</internalNodes>
      <leafValues>
        -4.1897746920585632e-01 4.7915908694267273e-01</leafValues></_>
    <_>
      <internalNodes>
        0 -1 27283 1109525246 537985036 167886989 1637028243 1612108289
        -721017854 146936016 721099439</internalNodes>
      <leafValues>
        -6.9695210456848145e-01 2.6826837658882141e-01</leafValues></_></weakClassifiers></stage3>
</opencv_storage>
