<?xml version="1.0"?>
<opencv_storage>
<stage2>
  <maxWeakCount>6</maxWeakCount>
  <stageThreshold>-8.0561220645904541e-01</stageThreshold>
  <weakClassifiers>
    <_>
      <internalNodes>
        0 -1 26112 -420483345 49012734 -1049694598 16773869 1291964895
        351797119 -67589 -403709953</internalNodes>
      <leafValues>
        -4.7163119912147522e-01 6.1009174585342407e-01</leafValues></_>
    <_>
      <internalNodes>
        0 -1 5412 -1574081 1743191999 -3474422 -240649249 1441228102
        125757271 301430631 -167772833</internalNodes>
      <leafValues>
        -4.1107368469238281e-01 5.7390964031219482e-01</leafValues></_>
    <_>
      <internalNodes>
        0 -1 481 -246944838 -921452417 1610662088 2005352898 -1878470021
        -402554872 -2136110821 838836455</internalNodes>
      <leafValues>
        -4.7444835305213928e-01 4.9383351206779480e-01</leafValues></_>
    <_>
      <internalNodes>
        0 -1 24586 -1009257289 1156558089 -16899409 1936031458 -16777673
        1643616255 -184659205 -134230369</internalNodes>
      <leafValues>
        -3.5793191194534302e-01 6.7201322317123413e-01</leafValues></_>
    <_>
      <internalNodes>
        0 -1 2935 1397865192 278100891 -1962868694 869474735 1753572521
        1409357953 828436683 819721199</internalNodes>
      <leafValues>
        -5.4348528385162354e-01 4.1330727934837341e-01</leafValues></_>
    <_>
      <internalNodes>
        0 -1 12840 -419974514 1732128494 -1627451286 -142934402
        354125125 1147632510 1744659276 -640821905</internalNodes>
      <leafValues>
        -4.6681323647499084e-01 4.9616566300392151e-01</leafValues></_></weakClassifiers></stage2>
</opencv_storage>
