<?xml version="1.0"?>
<opencv_storage>
<stage19>
  <maxWeakCount>12</maxWeakCount>
  <stageThreshold>-6.7047661542892456e-01</stageThreshold>
  <weakClassifiers>
    <_>
      <internalNodes>
        0 -1 11600 -503135758 -641580032 -2130241133 -774295408
        -1860558713 -644321272 -1610178424 -469474044</internalNodes>
      <leafValues>
        -3.6413642764091492e-01 3.0339139699935913e-01</leafValues></_>
    <_>
      <internalNodes>
        0 -1 31958 153133556 -1797783339 -1860922923 -1218576105
        -313909192 -1700757368 -2069883939 -1164180801</internalNodes>
      <leafValues>
        -3.5938474535942078e-01 3.1045052409172058e-01</leafValues></_>
    <_>
      <internalNodes>
        0 -1 1803 1219376943 -1857807276 1493780625 126497347 142680103
        708976651 -1593743363 -403486921</internalNodes>
      <leafValues>
        -3.8473626971244812e-01 3.1455987691879272e-01</leafValues></_>
    <_>
      <internalNodes>
        0 -1 21291 -687343834 -709214211 -420581850 -1276137498
        -1242065831 1414852447 -50399316 -285476932</internalNodes>
      <leafValues>
        -3.0405986309051514e-01 4.2197859287261963e-01</leafValues></_>
    <_>
      <internalNodes>
        0 -1 26370 -791900654 960959353 -2129656574 551862458 1750937652
        -1396684150 -518479560 -2044225985</internalNodes>
      <leafValues>
        -4.8647961020469666e-01 2.4760174751281738e-01</leafValues></_>
    <_>
      <internalNodes>
        0 -1 2992 437547277 1941127529 -922570563 -1286313651 -477989136
        1426064009 255869861 -1078457776</internalNodes>
      <leafValues>
        -4.0159150958061218e-01 3.4178501367568970e-01</leafValues></_>
    <_>
      <internalNodes>
        0 -1 8246 -247012474 1200751021 -1879043840 -2600181 1796436467
        664881298 1908646238 2145264259</internalNodes>
      <leafValues>
        -4.2964577674865723e-01 3.1975236535072327e-01</leafValues></_>
    <_>
      <internalNodes>
        0 -1 31401 -564395496 844253477 -2118123362 -1551724526
        362816090 297861321 -1501132039 -1167975514</internalNodes>
      <leafValues>
        -5.4628199338912964e-01 2.3415425419807434e-01</leafValues></_>
    <_>
      <internalNodes>
        0 -1 17391 -871914067 164430090 -1072623208 -1949224824
        990579191 1937807651 193595395 -590148968</internalNodes>
      <leafValues>
        -3.8000187277793884e-01 3.8049793243408203e-01</leafValues></_>
    <_>
      <internalNodes>
        0 -1 13244 607462162 1523245701 -1862184875 -201080831 807518340
        1350959300 730055544 -1197159758</internalNodes>
      <leafValues>
        -4.7851410508155823e-01 3.0072799324989319e-01</leafValues></_>
    <_>
      <internalNodes>
        0 -1 32125 -1805917116 2136506521 629153807 1644450128
        -530949706 688390531 135420172 880976922</internalNodes>
      <leafValues>
        -4.7638359665870667e-01 3.0767595767974854e-01</leafValues></_>
    <_>
      <internalNodes>
        0 -1 26227 -179389654 301174636 -2109328957 987271193
        -1341683699 137365768 612557531 -906776113</internalNodes>
      <leafValues>
        -4.0981402993202209e-01 4.1009467840194702e-01</leafValues></_></weakClassifiers></stage19>
</opencv_storage>
